-0.4666003573582155
0.7368078368164093
-0.9052062909596328
0.650444554701392
-1.137996238396794
0.12163579837202573
-0.05299610280722634
-0.43672874843434806
0.31056332005930193
-0.5533146333400653
-0.11607434165746107
-0.9096814762220031
0.46110620691526427
-0.4954173739427825
-0.12360172649813596
-0.9908754532346642
0.799060780564944
-0.296410149863802
0.5597970359706484
0.3483475884398067
0.1390268329372488
-0.09500308797777435
0.8863568171915823
-0.8187768202662229
-0.4363797987471012
-0.4755001195716674
-1.058588566250259
0.5142928257508533
0.2977410751252716
-0.6419129399193604
-0.005212771295962648
0.6832065767702962
0.2975524896972743
-0.1624454762227294
0.6424638022579521
0.5648203519281435
0.3768811990317191
0.23756705889366753
-0.5842310122842055
0.024567634959618653
0.09295305553222842
0.7226870104222207
-0.8235926533467677
-0.12124358640504536
-0.5671843051065333
0.03995741055929133
-0.05635098042957643
0.6809376567839056
0.18033155389382174
-0.9966490533581549
-0.9387395141698114
-0.9787399214524011
-0.5008639308361721
-0.04682264857629383
-0.3508471063742799
0.012944775955334156
0.5451349838343276
-0.6922914890072891
0.19491975570283282
0.9233382202832876
-0.8313659908601108
-0.2560897576192331
0.2640690914327649
-0.4463924647435933
0.39325912738152896
0.19421245381527258
0.09393673173018247
-0.4532902846601465
-0.12575353517685106
0.5010588135189428
0.15964240639000968
0.35259068270640925
0.31640243049678085
0.7581633333727188
-0.7846003434099348
-1.1594970659726815
-0.3364911940343646
-0.4085404180681943
-1.107113359501811
-0.0831486601818035
-0.5915836679311506
-0.27605359736813523
-0.8551660689098693
-0.33869691360468945
-0.897555165097862
-0.570695659753943
0.8639225159610283
-0.20336101291431263
0.3733951882713666
0.8644866798456595
-0.3080118096335569
0.7143044678374312
-0.9528703611770475
0.774123127237441
-0.5264012361355024
-0.9108900143053066
0.9782613477916526
-0.8097414628152777
-0.5624601718212111
0.5130117765183526
0.8412639866860527
0.5823872474457564
0.2451809751139713
-0.34418892073281704
-0.14601662910253665
-0.6834913924953357
-0.16049268522023158
0.769333601551872
-0.6618750459404943
0.8583514806396503
-0.406643762598492
-0.261272018677857
0.18512174099068313
-0.7495323604218747
0.08178369324439669
-0.39997743192655316
0.7602453054051729
0.7282439666209474
-0.740185850429731
-0.7357921158008922
0.3955983972008704
-0.039622134831255845
-0.6643596626396482
-0.6046539564047009
0.06261365863266913
0.18883381361638343
-0.010330885469780447
0.43164140289628805
-0.4111854747107644
-0.9582927804706487
0.06170058216057628
0.7712101560770768
0.03295813113093016
-0.36448956667889154
0.4189622380077748
-0.6461032730543576
0.5485753604238182
0.4775318316818018
0.7743424141978568
-0.8136723613486694
-0.02596316071738738
0.931647544881729
0.6518831678252603
0.5022341740690085
0.2886309015564193
-0.18239155315722647
0.8853509471466265
-0.6380648972972431
0.07658039261326641
0.7913300402887091
-0.16910133522442128
0.32259693869886646
0.6512653086414824
-0.5755662585808706
-0.3190724898999718
0.6166247592731865
0.2450867063313439
0.002101769623378667
-0.603209297394084
-0.06299772850723274
0.8273740685871728
0.10515798447245714
0.8911519071465123
-0.46773416174751403
-0.3159067018946452
0.3784205353881044
-0.046340712734961896
0.2875134505558655
0.07153110487722264
0.4984834696105033
0.9755451554310532
-0.31590332044566305
0.6347702617029471
0.5811382393490092
0.5580212304173706
-0.056053700593222455
-0.6316324438574223
-0.2687085785848573
-0.5233280135502824
0.3868798242195526
-0.15175075188556453
-0.6633034680144342
0.35389737469256743
0.3447177809967821
0.4871051524372467
-0.9874337418733448
0.7401439117881581
-0.13314425786508866
-0.4450785249711351
-0.1870211404931999
-0.42526131105479725
-0.6837549878406873
0.6582813224214552
-0.13977114622851872
0.1837585206046961
1.00779971272474
-0.6785623741456234
-0.1396694376683289
0.42939067021726673
-0.5713648444972999
-0.586426025109014
-0.0762441311469263
0.42015186765103074
0.5461157573584322
0.23954639167415476
-0.15789337786177826
0.6836553258388778
-0.33499364017809574
-0.5235802800087858
0.21102083526310533
-0.36759312640432584
-0.6085389154979659
-0.4137413689626309
0.07875857894283
0.35388395345087625
0.7640552052538603
0.2539519541222909
-0.2943208176043161
-0.20450631489255722
0.6344847154612855
-0.14584932221175295
0.6429165586969622
-0.059432137065181134
0.21080206943234803
0.7157511149504001
0.3203856941998737
0.36909285651640433
0.33782418614188164
-0.10974877815427297
-0.9188922001734473
0.2829009858596119
-0.6903384615420002
0.6675814292357012
0.29365262391886005
-0.1586636098722592
-0.1260335883527789
-0.3977196538234965
-0.24869800713784315
-0.7887784121301368
-0.29496787286305964
0.10560252574334363
-0.9270279158595086
-0.24806225226745654
0.820256928246902
0.051478307739497596
-0.8362808994628381
-0.4584429372752283
-0.9010665701104381
-0.15575328938236652
0.6558829632045999
0.8035129993843796
0.32398927245346304
-0.28253174958819943
0.5666286981274549
0.679585330618141
-0.0609836100034106
-0.9221733090944151
-0.34359065326406746
-0.6511889721178581
0.5639572057123188
-0.6531923459524966
-0.1221884254512489
-0.47148771432807934
0.8633036448504343
0.12625782036628563
-0.15914118151721102
0.8385467261026762
-0.7308699287429943
0.05815238175022928
0.5457529591535
-0.8729782584479658
0.8991441576532304
0.49033695919401366
-0.34605744874091093
-0.24097670815235284
-0.5986434007096288
-0.5257427245508828
0.6409649780379124
-0.5302691627091747
-0.43921858908013206
-0.41465857571024894
-0.9435883475457049
-0.16853136258460277
-0.05268099337897716
-0.40867757663999876
0.13872891990285963
-0.18251162986813646
-0.40758881056894175
0.8700742559290023
0.784478263236222
0.9235433959669064
0.9094237244751857
0.03223905133611238
-0.08286676328779174
-0.23337291725293752
-0.18162524782917872
0.6800999832884801
0.7279255544307847
0.9512189680133608
0.9487492108255244
-0.10968033699674473
-0.3882050353081492
0.7620829879551334
-0.0091422738151552
-0.7845513073244882
-0.5266836991789458
-0.995505319799772
-0.7406868281892567
-0.755520032441558
-0.2730266671954329
-0.8263867063775236
-0.8071041976796758
0.1495536278633916
-0.06848785472946681
-0.5041992043027199
-0.0983212282357872
-0.04873956625281398
-0.1025086313171734
-0.5344496425885709
-0.14606074502818556
-0.9551168383385814
0.170235062493142
0.37611682031635196
0.6067918658784434
-0.5856213102398398
-0.16595129563614702
0.4280609131687929
0.4704071832783496
0.15354967963588692
0.02127152101041209
-0.9499198141384468
-0.5103855160075016
0.47358027400369396
-0.948570403154788
0.9639606778378285
-0.6264515943485109
0.3332255107566484
-0.616825953179424
-0.5102616509769546
0.8996697630192079
-0.36252170250701016
-0.5499773854486955
-0.035321442454604605
-0.23514650847556923
-0.038354292273931286
-0.8402566000919389
0.25715283385536614
0.3065643333977013
0.36094159954094507
0.7815646016416535
0.13742550658315408
0.47251638789073785
-0.990660200513289
0.0016136031181639993
0.7103823155637063
-0.8401856438386195
0.16025970771620845
-0.7906017077310409
-0.23864233243033225
0.7062193665584674
-0.18320463479387228
-0.9560388958154691
0.9604275806325352
-0.15179090467601786
0.3035407052469836
-0.4302698081219045
0.3167732534927306
-0.8325304872800258
-0.5495789432805619
-0.7901356574616963
-0.4648513214461943
-0.18620399459937276
0.9118097061094016
0.006808879550679103
-0.2713515125266143
-0.33131887193419907
0.04147153624079367
-0.4660946942759732
-0.7915381020888302
-0.7789116581041259
-0.6844423562986279
-0.9576061629730194
0.6903721633172586
0.9491131335963535
-0.7027712848611003
0.34849413480129526
-0.010265249544357995
-0.833094351515869
-0.9690304843134184
0.9880346657013416
-0.8307263307947705
0.4394860861579262
-0.16885708425198032
-0.10047424142969025
0.38669335551508655
-0.408537965240669
-0.16397184269886264
0.23558448562570083
-0.3461543878089237
-0.5037983124983398
-0.9045155763559357
0.02459539543966812
-0.5554241524254665
-0.14901474579642032
0.05766898996086694
0.1530818046717995
0.8432866898020047
0.29963272455486306
-0.6770110970674238
-0.27036419695039127
-0.6147127825603244
0.6223626602128697
0.5945197695687106
